Version 8.5.0
Id 
Min label:-1
Max label:1
bits:18
lda:0
0 ngram:
0 skip:
options:
Checksum: 1119895216
:0
157:-1.45038e-06
265:-0.00919008
378:0.0101504
596:-1.54972e-07
607:-2.02238e-08
609:-2.38419e-07
947:0.00431053
1038:0.000613598
1085:0.00264276
1256:-0.00048316
1276:-0.00554289
1299:0.128977
1451:-3.97364e-08
1480:-2.99137e-08
1514:0.23057
1549:-1.06359e-08
1743:-0.0109748
1871:0.0136134
1954:-4.22967e-08
1964:0.00405187
1979:0.179451
1985:-0.00452066
2268:-2.38419e-07
2284:-1.19209e-07
2411:-6.18957e-09
2625:0.00197713
2637:0.0276202
2796:0.00128976
2826:-9.78818e-09
2907:-0.0423388
2943:-6.87722e-08
3009:0.00503464
3053:-2.38419e-07
3078:0.0394384
3194:-7.94729e-08
3199:0.0672632
3235:0.025479
3357:0.00131834
3430:0.00284568
3440:0.0331667
3494:0.018189
3511:0.123443
3643:-3.97364e-08
3719:-7.94729e-08
3814:-1.19209e-07
3900:0.00602399
3989:0.0587004
4037:0.119505
4186:-0.0125611
4221:-2.6491e-08
4224:0.00715688
4275:-3.33786e-07
4299:0.0348015
4352:0.00999701
4367:-2.20537e-06
4414:-2.38419e-07
4433:0.0110944
4480:0.246357
4597:-0.00151368
4612:0.000437492
4641:-8.42298e-08
4893:0.122921
4998:-3.97364e-08
5027:-4.99846e-08
5063:0.0248877
5161:0.219507
5237:0.00362301
5299:0.054421
5348:-2.38419e-08
5380:0.0618526
5401:0.000454605
5489:-3.40212e-08
5515:-0.000664234
5521:-4.76837e-08
5616:0.00203462
5635:-3.88718e-08
5685:0.0423399
5688:0.0260782
5725:-0.0685837
5732:-4.76837e-08
5736:-9.78818e-09
5762:0.00835834
5996:-1.19209e-07
6017:-0.0694643
6163:-2.38419e-07
6215:-2.38419e-07
6265:0.0893712
6331:-1.02034e-07
6487:-4.98315e-08
6532:0.0105715
6714:-0.0942514
6716:-1.19209e-07
6898:-0.0253886
7029:-1.19209e-07
7249:0.0927351
7263:0.00575014
7319:0.0110341
7380:0.00926094
7628:-0.00048316
7967:-6.87722e-08
7982:-0.00990118
8040:0.00549883
8212:0.00286965
8243:-2.6491e-08
8339:-2.52992e-07
8340:-2.38419e-07
8372:0.00182936
8562:-3.97364e-08
8585:-1.45713e-08
8588:-1.19209e-07
8631:-1.19209e-07
8649:-7.94729e-08
8655:0.00174127
8947:-3.40212e-08
9113:-1.19209e-07
9177:0.0597725
9182:8.13297e-05
9451:0.0405259
9524:0.0381508
9695:-1.19209e-07
9736:-5.96046e-08
9778:-2.7416e-08
9954:-2.38419e-08
10067:0.0110725
10069:0.00679577
10248:-2.38419e-07
10271:0.00432328
10314:0.128014
10324:-0.0181498
10455:0.00975662
10619:0.000239752
10652:0.0185546
10679:-2.38419e-07
10706:-1.04745e-07
10785:0.00341651
10872:0.00341651
11023:0.164727
11124:-2.02609e-08
11194:0.00512933
11231:-5.31262e-09
11239:-8.70228e-07
11262:0.000555252
11389:0.00172711
11499:0.0136134
11534:0.0166065
11606:-3.24263e-08
11709:0.00767591
11973:-2.38419e-07
12055:-0.0070261
12070:0.0316892
12147:-7.7486e-07
12174:-0.0137951
12214:0.0136244
12274:0.00101717
12292:-6.31394e-08
12315:-1.45038e-06
12352:-2.38419e-07
12360:0.0237819
12502:-7.94729e-08
12776:0.0165106
12811:-0.0157302
12992:0.00128011
13104:0.11381
13194:0.00579273
13261:-6.59701e-08
13296:-2.68052e-08
13310:-0.0526271
13338:-0.0415221
13412:0.0144974
13434:-0.0431868
13438:-2.38419e-07
13648:-3.56596e-08
13784:-2.38419e-07
13869:0.00473659
14114:-2.38419e-07
14276:0.136774
14290:-2.38419e-07
14304:0.00788411
14428:0.175481
14456:-0.0091835
14600:0.00139504
14630:0.00128006
14752:0.0121906
14870:-1.19209e-07
14912:0.00128011
14957:-4.76837e-08
14962:-0.107352
15002:-0.00275726
15072:0.0380045
15094:-5.96046e-08
15221:0.000338351
15427:-0.00048316
15541:-1.67678e-08
15729:-1.19209e-07
15769:-2.38419e-07
15795:0.0212488
15825:-2.38419e-07
15833:-0.0473096
15940:-2.1855e-07
16050:-5.96046e-08
16123:-1.88735e-08
16159:-2.38419e-07
16232:0.00123883
16279:-0.0248551
16398:0.0413916
16501:-8.34465e-07
16683:-2.38419e-07
16809:0.00276208
16903:-3.0566e-08
16923:-1.19209e-07
17041:0.000157249
17050:0.0847938
17179:-1.19209e-07
17210:0.000254101
17255:0.0160048
17261:0.0474929
17400:0.0172133
17479:0.0752457
17570:-0.0070261
17701:-0.0351967
17942:0.124406
18043:-1.87627e-08
18110:0.00284568
18129:0.0794296
18166:0.0285142
18173:-2.38419e-07
18262:-5.96046e-08
18431:-2.38419e-07
18555:0.00789417
18567:0.0317283
18629:-2.39774e-08
18663:-0.0307422
18694:-3.42054e-08
18732:-3.97364e-08
18777:0.00233728
18813:0.0421704
18963:0.0485203
18968:-2.35279e-08
19082:0.000454605
19123:0.122921
19133:0.00101565
19360:0.0351464
19435:0.0014927
19503:0.0229109
19546:0.00265671
19650:-2.38419e-07
19773:0.00999701
19786:0.13888
19866:-3.97364e-08
19912:-2.38419e-07
20058:-0.0140409
20212:-2.38419e-07
20332:-7.94729e-08
20669:0.0064498
20851:-0.00434325
20877:-3.97364e-08
21074:-2.38419e-08
21084:0.0771199
21109:0.0710971
21155:0.198648
21187:-7.94729e-08
21201:0.00696234
21220:0.0014924
21289:0.00341651
21325:-3.88718e-08
21341:-5.96046e-08
21425:-2.38419e-07
21493:-1.93289e-06
21645:0.0208796
21666:0.0107312
21825:-0.173937
21827:-2.38419e-07
21928:-0.0332717
22026:-0.0390915
22063:0.001169
22078:0.0423399
22092:0.00362301
22218:-6.18957e-09
22299:0.000275442
22410:0.0125932
22535:-3.97364e-08
22623:-2.38419e-07
22694:0.000385578
22773:0.0405896
22775:-0.0321194
22790:0.121074
22806:-2.39774e-08
22851:0.0141985
22852:-1.06359e-08
22861:-2.38419e-07
22959:-0.0109748
23097:-1.3266e-07
23119:-1.45739e-08
23196:-2.38419e-07
23199:-5.96046e-08
23245:0.000434077
23255:-4.17232e-07
23333:0.00203516
23335:-7.94729e-08
23395:-5.12843e-08
23549:-1.19209e-07
23578:0.0423725
23834:-5.11888e-08
24010:-4.76837e-08
24051:0.0113181
24064:0.00549883
24080:0.000911289
24172:0.001493
24235:0.0149507
24330:-0.00919008
24414:0.0216892
24463:0.118418
24503:-1.19209e-07
24585:-2.38419e-07
24793:0.0328003
24947:-7.94729e-08
24985:-3.97364e-08
25058:0.000275839
25059:0.028927
25085:-7.94729e-08
25170:-0.00329135
25182:-7.94729e-08
25192:0.0631265
25209:-5.07669e-08
25226:-2.38419e-07
25247:0.00398816
25469:0.00579273
25592:-1.1713e-08
25617:0.00450773
25878:-0.0592761
25941:0.0173229
26137:-2.02609e-08
26144:-0.0648664
26195:0.00925444
26313:0.000275442
26386:-2.38419e-07
26429:-2.38419e-07
26634:0.00116888
26698:0.0424304
26772:0.113057
26813:-2.38419e-07
26903:0.035418
26995:-7.94729e-08
27006:0.00104237
27112:-1.87627e-08
27195:-5.96046e-08
27209:-1.19209e-07
27432:0.0243587
27673:-2.01159e-08
27869:0.00925444
27915:0.00450872
27937:0.0438283
28024:-2.38419e-07
28087:0.00679577
28331:-5.96046e-08
28803:-2.38419e-07
28851:-2.38419e-07
28884:0.000870818
28993:-2.38419e-07
29059:-3.85404e-08
29207:0.129252
29239:-2.38419e-07
29351:-0.0125833
29392:-5.96046e-08
29443:0.0665388
29447:-2.68052e-08
29456:0.0136134
29457:-2.38419e-07
29481:-2.38419e-07
29482:0.0192835
29628:-0.00383426
29754:0.000217044
29885:0.0165783
29895:0.000254101
29896:-7.94729e-08
29907:-1.19209e-07
29980:0.0130117
30110:0.143153
30140:0.0119908
30408:0.0149122
30410:0.02117
30476:0.014098
30498:0.0423399
30545:-2.38419e-07
30586:0.0119678
30686:-8.9407e-08
30792:0.145388
30934:0.0110944
31115:-2.38419e-07
31248:-0.0091835
31329:-1.87975e-08
31363:0.0304049
31438:0.0182206
31531:-1.87975e-08
31535:-1.2154e-07
31557:-1.19209e-07
31571:-2.38419e-07
31665:0.00341651
31681:0.0526817
31706:0.0299393
31810:-0.00674429
31960:0.00625376
32003:0.104138
32270:0.00341651
32314:0.145388
32470:0.000144698
32476:0.0258228
32634:0.0491055
32673:0.000693237
32693:0.0173229
33064:-0.0391772
33122:-6.65162e-08
33172:0.00286965
33217:-0.0208224
33294:0.0113181
33389:0.123443
33399:-1.18923e-07
33401:0.0265512
33537:-2.38419e-07
33689:-2.38419e-07
33788:-2.38419e-07
33800:0.016112
33839:0.00197469
33876:0.00791959
33902:-3.40598e-08
33907:0.0162019
34031:-5.04013e-08
34144:-1.19209e-07
34231:0.0100393
34262:-0.0172401
34264:-1.19209e-07
34343:-4.17232e-07
34366:0.00123883
34424:0.00303786
34434:0.0514671
34588:-8.1006e-08
34604:0.0208277
34660:-3.85404e-08
34689:-0.00048316
34772:0.0166115
34775:0.00313084
34822:0.00203361
34875:0.144096
34955:-3.42054e-08
35126:-6.18957e-09
35140:-2.38419e-07
35189:0.00377407
35216:-1.14835e-07
35302:0.00117214
35329:0.000911289
35356:0.00157464
35585:0.0139073
35588:-0.003529
35664:-2.38419e-07
35686:-0.00160187
35718:0.00203027
35773:0.0894012
35854:-5.30813e-08
36106:0.000911289
36162:-2.38419e-07
36270:0.00998671
36294:-0.0417047
36414:0.012436
36433:0.0210466
36536:-7.94729e-08
36578:0.0140856
36626:0.00538381
36637:-0.0125833
36679:-2.38419e-07
36731:-0.00383426
36786:-1.25847e-07
36809:-2.99137e-08
36875:-0.00383426
36913:0.0422345
36940:-2.38419e-07
36978:0.0743777
37030:0.0416287
37044:0.15577
37062:0.049398
37091:-0.0685837
37114:-2.38419e-07
37136:-0.0332717
37206:-2.38419e-07
37283:0.00149623
37347:0.113057
37375:-5.96046e-08
37612:0.0210812
37651:-7.94729e-08
37665:-1.19209e-07
37671:-1.45038e-06
37777:0.0026427
37857:-7.94729e-08
37888:0.013221
37892:0.00267178
37947:-2.38419e-08
38205:0.0259065
38281:-8.027e-08
38283:-0.0177968
38287:0.137455
38335:0.0113181
38356:-2.68052e-08
38389:-1.19209e-07
38435:-2.38419e-07
38466:-1.19209e-07
38500:-7.94729e-08
38525:-5.96046e-08
38679:0.0152931
38684:0.0191149
38811:0.165824
38835:0.0265511
38851:0.00197424
39012:0.00359153
39290:-1.14437e-08
39336:0.0121906
39389:0.00263411
39554:-5.96046e-08
39616:-0.0107108
39641:-0.000127488
39675:0.00650394
39798:-0.00304429
39889:-2.38419e-07
39905:-0.0405852
39992:-1.18427e-07
40034:-6.60526e-08
40057:0.0269752
40199:0.100744
40273:-0.00874452
40444:0.00203159
40446:0.0333672
40669:-1.04749e-07
40732:0.000253986
40872:-2.38419e-07
40912:0.0297759
40961:0.0814727
41067:0.118418
41182:0.0791488
41355:0.063133
41451:0.00405187
41663:0.000870811
41683:0.0950694
41956:0.0136134
42120:-0.0091835
42257:0.0237006
42321:0.00296876
42515:-4.76837e-08
42541:0.00362301
42717:2.00454e-05
42821:-2.02238e-08
42905:0.0512491
43004:-9.78818e-09
43081:-1.87975e-08
43209:-7.94729e-08
43226:-4.03448e-08
43233:0.0788014
43235:0.0229129
43311:-3.27826e-07
43405:0.00450872
43599:-2.38419e-07
43639:-1.14437e-08
43640:-2.38419e-07
43664:0.118418
43764:0.00520624
43854:-3.73763e-08
44007:0.00284568
44027:-2.6491e-08
44277:0.0339589
44318:0.000841052
44459:-0.032358
44463:0.00789417
44556:0.0288923
44564:-2.38419e-07
44748:0.0130446
44841:-2.38419e-07
44942:-1.19209e-07
44973:0.00352593
44978:-5.96046e-08
44992:-1.54972e-07
45088:-8.23694e-08
45110:0.000454605
45139:-8.40621e-09
45167:0.0149123
45187:-0.0401529
45243:-0.00990118
45306:-7.94729e-08
45373:-5.47863e-09
45447:0.0950694
45525:-1.16359e-07
45627:0.0113592
45669:-1.08271e-07
45775:-2.38419e-07
45838:-5.31262e-09
45980:0.0165153
46015:0.000944026
46073:-2.01159e-08
46074:0.0136372
46125:-1.19209e-07
46204:-5.96046e-08
46272:-9.67587e-09
46353:-2.02609e-08
46374:-1.19209e-07
46385:-1.46534e-07
46410:-0.0579136
46499:0.0192333
46709:-1.19209e-07
46742:-1.03501e-07
46815:-7.94729e-08
46929:-2.38419e-07
46941:-1.34676e-07
47000:-2.38419e-07
47006:-2.38419e-07
47019:0.043509
47071:0.00550658
47341:-2.38419e-07
47347:0.10417
47350:0.00437137
47382:0.000454605
47536:0.0161439
47550:-3.66893e-08
47596:-2.38419e-07
47728:-1.19209e-07
47822:-3.88718e-08
47970:0.0514671
48038:-7.94729e-08
48092:-1.19209e-07
48103:-0.00275726
48255:0.0736279
48302:-2.38419e-07
48441:-3.42054e-08
48505:0.00341651
48579:-1.19209e-07
48580:0.00314185
48602:0.051913
48641:-1.19209e-07
48698:-5.96046e-08
48819:-1.19209e-07
48838:0.00950305
48848:0.00595152
48933:-0.00268121
48994:-0.066553
49031:-1.36825e-08
49074:0.0976934
49096:-5.96046e-08
49102:0.0852815
49106:-7.0841e-08
49138:-2.38419e-07
49197:-4.76837e-08
49199:0.00395234
49202:-1.19209e-07
49258:-1.19209e-07
49363:0.0794296
49371:-2.38419e-07
49413:-8.70228e-07
49487:0.0147829
49507:0.000239835
49607:0.00409167
49772:-1.19209e-07
49786:-2.38419e-07
49814:-3.40598e-08
49815:0.000944026
50133:-1.02815e-08
50178:-0.0694643
50198:0.00963984
50278:-1.08271e-07
50396:0.00199322
50455:-3.88718e-08
50467:-1.67678e-08
50633:-0.0125833
50798:0.00450872
51059:0.0110575
51116:0.00131593
51241:-2.38419e-07
51374:0.0462495
51518:-2.38419e-08
51607:0.000157249
51619:0.0117714
51635:0.0121611
51856:-6.93782e-08
52006:-1.19209e-07
52096:-2.17557e-06
52220:-7.94729e-08
52328:3.79967e-05
52406:-2.38419e-07
52584:-1.19209e-07
52644:0.0274488
52672:-0.0473096
52726:0.00825266
52830:-4.77507e-05
52888:0.164727
52898:-0.00048316
52945:-1.46534e-07
53140:0.00357355
53144:0.0182206
53171:0.154594
53291:-2.38419e-07
53453:0.0570646
53524:0.00293689
53558:-2.38419e-07
53604:0.00377407
53699:-0.0091835
53701:0.00214872
53764:-0.187776
53830:-1.65885e-08
53864:0.0168938
53931:0.112859
54026:0.043509
54055:-6.38204e-08
54096:0.0247201
54185:0.00636776
54304:0.00854007
54408:0.0130117
54525:-3.33786e-07
54814:-4.76837e-08
54831:0.00303786
54866:0.174896
54902:-0.152366
54911:-7.94729e-08
54939:0.00999701
55007:0.0514671
55114:0.118569
55123:0.0405259
55125:-0.0070261
55204:0.0221717
55251:0.00320087
55443:0.00473659
55599:-2.38419e-07
55687:-0.0156174
55750:-2.6491e-08
55774:0.0183819
55819:-8.60956e-08
56023:0.01883
56203:-2.28776e-08
56401:-0.0137951
56472:-3.31708e-08
56511:0.0146882
56534:-2.38419e-07
56586:-5.31262e-09
56592:0.00791959
56688:0.00395037
56769:0.143405
56801:0.0555683
56827:0.00284568
57054:0.015344
57316:0.0107707
57394:0.00357194
57408:0.00341651
57436:0.0306631
57477:-1.93715e-07
57500:0.00649674
57724:-0.0326444
57793:-1.19209e-07
57794:-0.0760928
57816:0.00549883
57876:-0.0364478
57897:-5.12843e-08
57949:-2.44708e-08
58009:-3.97364e-08
58062:-1.11752e-07
58093:0.0224788
58109:-3.97364e-08
58292:-0.00436518
58305:-3.40598e-08
58369:-4.76837e-08
58375:0.00909842
58416:0.0788348
58471:-3.97364e-08
58507:0.000406834
58605:-2.99137e-08
58686:0.00341651
59000:0.0788014
59301:-1.46534e-07
59438:-0.0397432
59491:0.0725416
59531:0.00999701
59609:0.0415305
59638:0.0121906
59674:0.00487869
59689:0.00362301
59918:-0.00160187
60267:0.0155894
60395:0.00128011
60895:0.00310744
60908:0.123443
60955:0.0166115
60977:-0.00542219
61026:-2.35279e-08
61200:0.00838591
61221:0.124221
61337:-2.38419e-07
61546:-4.35113e-06
61672:0.00975662
62001:-0.003529
62142:-1.43129e-08
62297:-1.19209e-07
62399:0.204096
62428:-5.96046e-08
62429:-3.00167e-08
62467:0.0348015
62526:0.0413916
62543:-1.19209e-07
62622:-2.44708e-08
62690:-1.1807e-07
62839:-2.38419e-07
62908:0.00131846
62958:0.000633384
62972:0.0279135
62996:0.000239991
63004:-4.76837e-08
63013:-1.19209e-07
63115:0.0437207
63163:0.000218605
63428:0.0102447
63438:0.000437492
63439:-3.40598e-08
63477:0.0136372
63527:-1.19209e-07
63546:0.00144313
63582:-1.19209e-07
63637:0.0110575
63905:0.0208796
63983:-2.35279e-08
64085:-2.38419e-07
64297:-0.0070261
64308:-2.38419e-07
64396:-0.0125833
64399:-2.98023e-08
64491:0.00320952
64581:-6.12971e-08
64603:-1.19209e-07
65090:-1.26184e-08
65299:0.00825266
65400:0.0506036
65407:0.000298236
65468:0.187848
65555:-3.43351e-08
65763:0.000934623
65887:-8.52433e-09
65897:-8.60956e-08
65903:-7.94729e-08
66017:-1.45739e-08
66054:0.210095
66073:0.0172284
66159:-0.0685837
66202:-6.05407e-08
66223:-7.94729e-08
66225:0.043509
66274:0.0351464
66361:-0.000664234
66388:0.0061382
66455:-1.19209e-07
66483:-1.19209e-07
66693:-2.38419e-07
66737:0.000358326
66796:0.00210047
66987:-7.94729e-08
66994:0.0258116
67377:-0.00048316
67438:0.052819
67550:-3.18732e-05
67578:0.0246991
67646:0.0107128
67735:-2.38419e-07
67740:0.00132813
67772:0.00242762
68132:-1.19209e-07
68212:0.068058
68333:-1.19209e-07
68500:-0.0172401
68543:-2.29991e-08
68606:-0.0036743
68702:-1.93289e-06
68713:0.0136134
68866:-7.94729e-08
68886:-1.23646e-08
68919:0.179451
69042:0.123443
69046:-5.31262e-09
69112:0.00123883
69329:0.00141706
69394:0.21062
69419:-0.00436518
69524:-0.0390488
69573:0.00512933
69616:-1.19209e-07
69693:0.000254101
69847:-1.08271e-07
70093:-1.19209e-07
70144:-2.38419e-07
70354:-1.54972e-07
70374:0.00909842
70438:0.00959355
70690:0.179739
70771:-1.67678e-08
70887:0.0587895
70930:-6.93782e-08
70971:0.000585871
71076:0.00450872
71086:0.124221
71117:-0.0102168
71200:-1.87975e-08
71209:-1.19209e-07
71328:-2.87017e-08
71408:-1.19209e-07
71431:0.000454605
71485:-1.43129e-08
71674:-6.87722e-08
71742:-2.38419e-07
71808:-0.138141
71902:0.00803235
71992:0.0306633
72073:-0.0141034
72109:0.000254101
72128:-1.06333e-08
72169:-2.38419e-07
72187:0.0909991
72356:0.0553089
72380:-2.38419e-07
72441:-2.38419e-07
72501:0.000481286
72649:-2.38419e-07
72745:0.017155
72939:-2.38419e-07
73046:-2.87017e-08
73187:0.0155894
73440:0.0136605
73605:-7.94729e-08
73699:-5.96046e-08
73761:0.043811
73765:-1.83399e-08
73852:0.00623445
73967:0.016202
74301:-2.70926e-08
74349:0.00401115
74405:0.00986736
74729:0.0219077
74774:0.0102447
74806:0.0958054
74876:0.0135681
74937:-2.35279e-08
75223:0.101044
75275:-0.00048316
75420:0.0462222
75562:-0.00048316
75563:0.0117714
75620:-1.19209e-07
75682:0.00975662
75701:0.043014
75773:-0.0365149
75832:0.0246991
75941:-1.19209e-07
76188:-2.38419e-08
76278:0.00561925
76282:0.00341651
76303:-0.0137951
76338:-1.69324e-08
76381:-2.70926e-08
76479:-4.76837e-08
76506:0.00963984
76586:-1.79941e-08
76628:-2.38419e-07
76665:0.0183819
76667:-4.37529e-08
76724:-3.97364e-08
76800:0.101648
76816:-0.00519982
77195:0.0208796
77200:0.0269436
77359:-6.91423e-08
77387:-7.94729e-08
77390:0.00273547
77524:-2.38419e-07
77634:-2.38419e-07
77670:0.116611
77719:-2.16744e-08
77727:0.0772414
77731:0.00359489
77814:0.0434391
78022:0.030114
78026:0.015737
78107:-2.38419e-07
78119:0.00999701
78235:-4.76837e-08
78264:-2.56649e-08
78352:0.00310744
78448:0.0246991
78693:-2.38419e-07
78796:-4.76837e-08
78918:0.0485203
79008:-2.02238e-08
79073:-6.37457e-05
79157:-1.46534e-07
79202:0.000362177
79241:0.0232391
79266:-1.84843e-08
79371:-0.0433813
79528:-5.96046e-08
79538:0.153201
79606:0.00362301
79723:-0.0248551
79859:-4.96693e-08
79875:0.0433666
79914:-1.19209e-07
80013:-3.97364e-08
80249:-3.19305e-08
80263:-1.69324e-08
80273:-1.19209e-07
80300:0.0105668
80324:-2.38419e-07
80646:0.0155894
80683:0.0343072
80706:0.0197365
80746:0.128014
80907:0.0231582
80940:0.0362014
81002:0.00144289
81146:-4.22967e-08
81229:-2.01159e-08
81321:0.0280324
81395:0.0166115
81469:-7.94729e-08
81523:-5.96046e-08
81610:0.0197365
81619:0.0162293
81690:-6.53996e-08
81703:-1.19209e-07
81865:-5.0269e-08
82172:0.000338351
82292:-2.44708e-08
82297:0.0234638
82431:-0.00519982
82443:-2.28225e-08
82831:0.122921
82968:-6.87722e-08
82990:-1.19209e-07
83141:-2.38419e-07
83243:-4.35113e-06
83255:-0.0923208
83278:0.00533332
83342:-1.19209e-07
83447:0.0155894
83458:0.00056804
83550:-2.44096e-08
83624:0.157046
83650:0.000934623
83749:0.0216892
83875:4.068e-05
83961:-3.40212e-08
84074:-2.38419e-07
84296:-4.76837e-08
84368:0.0548681
84380:0.000996489
84484:-2.38419e-07
84531:-0.00160187
84613:-2.38419e-07
84642:0.0526817
84833:-1.79941e-08
84872:-5.31262e-09
84874:0.00591067
84961:0.0020452
85103:-2.38419e-07
85227:0.00520624
85338:0.0219077
85343:-3.27826e-07
85557:-4.41097e-08
85771:-7.01836e-08
85857:0.105562
86149:-8.70228e-07
86177:0.00502756
86185:-2.7416e-08
86209:0.10417
86223:-3.92882e-08
86401:0.000555252
86451:0.0299549
86566:-2.38419e-07
86627:-2.38419e-07
86815:0.0184445
86886:-0.00874452
86904:0.128014
86984:-0.0091835
87005:-1.19209e-07
87170:0.020119
87276:-2.44096e-08
87365:-1.19209e-07
87518:2.00454e-05
87640:0.00199441
87641:-0.00492988
87671:0.016202
88018:-6.31394e-08
88143:-8.70228e-07
88248:0.00904232
88260:0.00512352
88264:-5.47863e-09
88265:0.0239162
88445:0.0405259
88541:0.00264276
88600:0.0423725
88715:0.0248312
88728:0.0219474
88957:0.00788394
89017:0.0166115
89104:-5.96046e-08
89107:0.0139073
89132:-5.96046e-08
89140:-2.38419e-07
89142:0.054351
89150:-0.00549561
89196:0.0587004
89454:-3.0075e-08
89514:0.0055007
89537:0.154286
89573:0.272297
89801:-7.50656e-08
89804:0.0178652
89921:-0.104013
90062:-3.4581e-08
90171:0.0105786
90248:-2.38419e-07
90290:-0.152366
90316:-1.93289e-06
90387:-2.38419e-07
90411:0.001169
90543:-0.134085
90550:0.018189
90580:-2.38419e-07
90636:-2.38419e-07
90674:0.0233717
90856:0.0172284
90882:0.112059
91139:0.0348015
91310:-7.94729e-08
91362:-4.76837e-08
91533:-5.96046e-08
91561:-7.94729e-08
91630:0.137455
91670:-1.19209e-07
91687:0.00101705
91818:0.00130513
91970:-0.00048316
92152:0.064997
92153:0.0309257
92204:0.0496075
92442:-7.94729e-08
92524:0.00359153
92594:0.0794295
92661:-0.0307052
92733:0.225513
92748:-0.0137951
92769:-0.00393299
92805:-5.31262e-09
92880:-8.52433e-09
92912:-1.87975e-08
92935:0.00178476
92990:0.0165483
93019:-1.45038e-06
93031:-0.0233695
93257:0.0198204
93305:-2.38419e-08
93322:0.00157464
93332:-1.19209e-07
93403:-7.94729e-08
93404:-3.97364e-08
93630:0.130838
93721:0.0946843
93766:-1.19209e-07
93784:0.000996495
93853:-1.93289e-06
93958:-0.0141034
94183:-7.94729e-08
94220:-1.43129e-08
94317:-0.142011
94494:0.147625
94585:-7.94729e-08
94666:0.00197713
94693:-1.45038e-06
94739:0.00197341
94810:-2.50131e-07
94812:-0.00519982
94870:0.0271138
94915:-2.20537e-06
95007:0.00128976
95130:0.000652498
95206:-4.87115e-08
95333:-0.0471367
95349:-1.24853e-07
95583:0.00696234
95612:-7.94729e-08
95624:0.00362301
95654:-2.16744e-08
95664:-2.70926e-08
95913:2.83491e-05
95994:0.00157464
96016:0.0423399
96068:0.0163476
96199:-3.97364e-08
96297:-4.15925e-08
96355:0.0223638
96549:0.0530048
96619:0.0240205
96789:0.0393458
96976:0.00101798
97033:0.0413916
97103:-5.96046e-08
97190:0.000437475
97292:0.000358326
97424:0.00120821
97448:0.058179
97460:-4.76837e-08
97469:4.06323e-05
97547:0.0976932
97929:-0.183582
98111:-2.38419e-07
98153:-0.0227634
98171:-1.19209e-07
98222:0.0136134
98246:0.00320087
98279:0.00141706
98291:0.0147829
98369:0.0136604
98434:-8.23694e-08
98499:0.000544079
98545:0.0233068
98624:-1.25124e-07
98714:-2.38419e-07
98837:0.00296876
98884:0.000232004
99019:0.148184
99158:0.00341651
99285:-1.19209e-07
99361:0.0134288
99407:0.00155787
99598:-1.93715e-07
99756:-2.74565e-08
99918:-2.38419e-07
99949:-3.19305e-08
100035:0.000437492
100044:-4.76837e-08
100406:0.143602
100623:-2.38419e-07
100636:0.00157464
100764:0.000239826
100818:-8.40621e-09
101009:0.212001
101023:-5.96046e-08
101031:-0.00436518
101285:0.0139221
101323:-4.76837e-08
101457:0.0189597
101519:0.0026554
101541:0.10813
101569:-0.000664234
101583:-2.75661e-08
101635:0.04453
101675:0.0139073
101681:0.0306633
101701:0.0261883
101748:0.00123883
101779:-2.38419e-07
101830:0.0141909
101844:0.0229109
101997:0.0229109
102050:0.0197939
102089:-1.36825e-08
102120:-5.96046e-08
102125:0.134879
102187:-2.38419e-07
102436:0.00056804
102456:-0.00436518
102713:0.049622
102862:-5.96046e-08
102928:-4.76837e-08
102934:-4.76837e-08
102948:-7.94729e-08
102959:-1.19209e-07
103092:-8.60956e-08
103131:0.0427146
103143:-1.19209e-07
103277:0.0333672
103341:-2.02238e-08
103394:0.0301507
103420:-2.38419e-07
103473:-0.00048316
103821:-0.00048316
103876:0.000693237
103893:0.131862
103945:-1.26184e-08
103968:-7.94729e-08
104004:-5.96046e-08
104017:0.000613598
104073:0.0496024
104153:-1.19209e-07
104207:0.00107549
104318:0.00595152
104452:-2.68052e-08
104477:0.0246071
104542:0.000841052
104901:0.00238243
104975:-1.19209e-07
105181:-3.28978e-08
105801:0.123773
105828:0.00341651
105848:0.00264276
105879:0.0423399
106000:-4.03448e-08
106021:0.000385578
106042:-7.94729e-08
106097:0.0136134
106127:0.0161439
106284:-1.11752e-07
106307:-1.1807e-07
106321:0.0278901
106378:-0.0405852
106383:0.00352593
106526:-2.38419e-07
106582:-0.102073
106584:0.00613953
106607:0.187848
106784:0.0136134
106813:-4.23568e-08
106886:0.0348015
106909:-7.00203e-08
106911:0.22658
107181:0.130211
107233:-0.0417047
107236:0.157876
107267:-5.96046e-08
107301:-2.38419e-07
107319:-0.0129189
107392:0.0101504
107463:-2.38419e-07
107475:0.000157249
107750:0.0243342
107820:-0.0120951
107827:0.106664
107985:0.0166114
108043:-2.98023e-08
108077:0.0579016
108107:0.00128009
108111:0.001683
108178:-2.38419e-07
108315:-5.96046e-08
108409:-7.94729e-08
108419:-1.26184e-08
108510:-2.38419e-07
108552:-0.0132893
108678:-4.76837e-08
108745:-2.38419e-07
108796:-0.00579118
108849:-4.76837e-08
108863:0.10149
109261:-2.58287e-07
109322:-1.19209e-07
109392:-4.76837e-08
109439:0.106664
109539:0.00303786
109621:-0.00160187
109631:-1.19209e-07
109682:0.00636776
109992:-1.83399e-08
110002:0.0113181
110058:0.0962237
110104:-2.38419e-07
110161:0.00512933
110242:-7.00203e-08
110249:-1.19209e-07
110355:0.0962237
110514:0.0147829
110558:-7.36001e-09
110608:0.013221
110670:0.00303786
110689:0.0692852
110694:0.0198204
110710:-0.00048316
110724:-2.38419e-07
110760:-1.19209e-07
110763:0.0238137
110822:-2.1855e-07
110862:-7.04522e-08
110916:-0.00048316
111315:2.00454e-05
111330:-3.59035e-08
111444:-4.37529e-08
111468:-1.19209e-07
111560:-2.17519e-08
111611:0.0166115
111712:0.0771199
111758:-1.14437e-08
111979:0.00273547
112051:-0.020234
112129:-2.38419e-07
112489:0.00561925
112508:0.092255
112521:0.0160155
112700:-1.19209e-07
112748:0.07795
112784:0.00313084
112788:0.000470788
112802:0.00437137
112872:0.129252
112930:-0.0685837
113072:0.0165106
113076:-6.87722e-08
113081:-1.65206e-07
113145:0.10553
113151:-5.31262e-09
113328:0.00197794
113375:-6.87722e-08
113514:-6.43144e-08
113607:-0.0481564
113655:0.0186298
113679:-1.09275e-07
113845:-2.35279e-08
114084:-0.0105289
114336:0.000481413
114344:0.00203212
114459:0.0642986
114541:-0.0132867
114547:-1.19209e-07
114717:0.0200226
114749:0.00284568
114753:-4.76837e-08
114845:-7.94729e-08
114849:-0.142011
114874:0.00715051
115106:0.0212488
115140:0.00512933
115294:-2.38419e-07
115359:-1.40191e-07
115472:0.00196431
115533:0.0553089
115574:0.00959378
115668:-1.19209e-07
115886:-1.19209e-07
115910:-2.38419e-07
115929:-2.38419e-07
115948:-0.00048316
116060:1.00312
116156:-2.38419e-07
116227:-1.19209e-07
116312:-2.38419e-07
116487:-2.86952e-08
116506:0.231993
116604:-1.19209e-07
116628:-3.97364e-08
116633:0.0665388
116764:0.164446
116826:0.0150947
116897:0.000721449
117003:-0.0231037
117152:0.0459595
117222:-1.19209e-07
117275:-1.23646e-08
117351:0.00649674
117466:-0.0109748
117507:0.00623445
117601:-0.0113246
117602:-7.94729e-08
117674:-2.6491e-08
117823:0.0015579
117855:0.00904232
118000:0.00332998
118085:-7.94729e-08
118115:-1.14437e-08
118137:-5.96046e-08
118155:-1.26184e-08
118169:-1.06359e-08
118264:0.000338351
118295:-7.94729e-08
118355:0.0423725
118384:-0.0106669
118494:-2.30962e-07
118517:-8.40621e-09
118602:2.98013e-08
118619:0.00538381
118642:-1.60541e-07
118688:-6.91423e-08
118882:0.00128011
118919:0.137842
118924:0.000235187
118962:-2.58116e-07
119017:-3.19305e-08
119257:-2.38419e-07
119433:-7.94729e-08
119677:0.0907571
119875:-1.37876e-07
119894:-1.1713e-08
120000:0.165824
120049:-1.06359e-08
120053:0.150789
120156:-0.0263156
120184:-4.76837e-08
120201:0.00362301
120204:-0.0473096
120225:0.0136134
120252:-1.87627e-08
120336:0.0113969
120415:-4.14945e-08
120571:0.0107612
120579:-7.94729e-08
120640:0.000434077
120731:0.128977
120833:0.235015
120855:-2.38419e-07
120975:0.157046
121004:0.110352
121017:-1.23646e-08
121018:-3.97364e-08
121024:0.0423398
121044:-8.60956e-08
121178:0.0136371
121508:-2.38419e-07
121584:-1.43129e-08
121617:0.147982
121681:-1.1713e-08
121863:-0.0431868
121869:-3.97364e-08
121940:0.0136719
121942:0.159355
121955:-3.97364e-08
121961:-1.19209e-07
121978:0.0192835
122127:0.00200397
122145:0.00242762
122215:-1.19209e-07
122278:-2.7416e-08
122335:0.0153563
122383:-1.19209e-07
122482:-1.11752e-07
122584:-1.51033e-07
122646:-1.02815e-08
122685:0.00926094
122781:-2.6491e-08
122826:0.0318007
122890:-4.76837e-08
122960:0.0105668
123035:0.00128976
123069:-0.0556263
123073:0.000911289
123428:0.00450872
123579:0.0303376
123693:-7.94729e-08
123792:-2.98023e-08
124456:-1.19209e-07
124524:0.0121906
124717:-4.76837e-08
124725:0.0125931
124773:0.110881
124878:-2.38419e-07
124881:-1.19209e-07
125084:0.00172714
125113:0.0893712
125124:-5.96046e-08
125197:-2.75661e-08
125216:0.00405187
125438:-0.00383426
125577:0.00341651
125659:-3.00167e-08
125726:-1.19209e-07
125835:0.148138
125884:-2.38419e-07
126008:0.0303505
126169:0.000544079
126201:0.0399995
126231:0.000217044
126245:0.0524455
126260:0.00443163
126273:-2.38419e-07
126519:-6.43144e-08
126557:0.00210047
126576:0.0962237
126600:-5.96046e-08
126873:0.0105786
127129:-3.0315e-08
127201:0.0144974
127268:-2.38419e-07
127494:0.0183819
127557:-8.80722e-08
127639:0.019102
127720:-0.0432615
127841:-6.55651e-07
127874:0.00320952
127879:0.0105668
127947:-2.38419e-07
127996:-7.36001e-09
128012:-2.38419e-07
128232:-1.19209e-07
128233:0.000298236
128319:0.172027
128375:0.157046
128392:-9.67587e-09
128513:-1.06333e-08
128593:-2.38419e-08
128734:-1.19209e-07
128737:-4.76837e-08
128913:-3.56596e-08
128954:-7.94729e-08
129026:0.0197365
129152:0.0028404
129155:0.00579273
129208:-2.86952e-08
129299:-4.03448e-08
129589:0.0893712
129604:0.0172284
129913:0.00320087
129959:0.00602399
129996:-4.76837e-08
130056:-7.94729e-08
130164:0.146531
130177:-1.45038e-06
130222:0.0424441
130229:0.00174049
130258:-1.19209e-07
130367:0.0440225
130620:0.00157464
130654:0.000406834
130745:0.000677806
130896:8.97131e-05
130939:-6.60526e-08
130987:0.00909842
131055:0.0594315
131098:-5.96046e-08
131104:0.00405187
131172:-2.38419e-07
131268:0.00157464
131453:-0.0261122
131469:0.043811
131494:0.0020452
131604:8.97874e-05
131788:-2.72701e-08
131843:0.0794296
131850:-7.94729e-08
131881:0.018189
131883:0.00274695
132068:0.0413916
132270:-0.0449456
132292:-2.38419e-07
132525:-7.94729e-08
132578:0.0348015
132715:-5.35794e-08
132757:0.0402852
132809:0.0588688
132915:0.0177281
132983:-4.76837e-08
133021:0.0112573
133100:-0.0385327
133129:-2.6491e-08
133175:-0.00048316
133238:-1.19209e-07
133259:-2.38419e-07
133424:-7.94729e-08
133459:-7.94729e-08
133631:0.00171611
133947:0.0189597
134096:0.00161569
134103:0.0105786
134113:0.0107895
134131:0.00242762
134427:0.0459595
134795:0.0161439
134874:-1.35444e-08
134903:0.00550412
134938:-1.19209e-07
135125:0.162962
135198:-0.00383426
135285:-0.000760639
135334:-2.38419e-07
135423:0.0161439
136111:0.0100383
136114:0.0423399
136156:-2.38419e-07
136383:0.0147829
136418:0.0103812
136434:0.0434391
136529:0.0124443
136553:0.00136946
136554:-5.07669e-08
136766:-3.97364e-08
137057:0.0155894
137293:0.0324988
137335:0.0715204
137392:-1.62767e-07
137462:0.0377859
137475:-2.23517e-07
137525:-1.19209e-07
137536:-0.00048316
137566:0.0820651
137662:-4.76837e-08
137788:-2.38419e-08
137862:-2.70926e-08
138049:-1.17122e-08
138144:-2.70926e-08
138181:0.0107702
138227:0.0600485
138266:0.0199521
138379:2.00454e-05
138407:0.00925444
138413:-2.38419e-07
138523:0.0709276
138553:-1.26184e-08
138722:0.090757
138839:-2.38419e-07
138844:0.0197365
138851:0.00959379
138853:0.00780903
138928:-2.38419e-07
138972:-7.94729e-08
139001:-4.76837e-08
139104:-0.00383426
139250:0.0297759
139267:0.013221
139407:-0.0350231
139461:-0.0592761
139636:0.012161
139676:0.00341651
139752:-1.65885e-08
139919:-2.38419e-07
139957:-2.52966e-08
140000:0.0315434
140015:0.00157464
140017:-2.38419e-07
140180:0.00240373
140266:0.02117
140360:0.0147829
140374:0.0020329
140424:0.0216892
140497:-1.19209e-07
140500:0.0488104
140540:-2.38419e-07
140567:-0.100125
140747:-3.28978e-08
141006:-2.38419e-07
141039:-4.66627e-08
141051:0.0434391
141112:4.068e-05
141222:-6.18957e-09
141511:0.0348015
141565:0.0249532
141619:-7.94729e-08
141898:-7.94729e-08
141929:0.0139073
141932:0.00123867
142031:-3.57628e-07
142045:0.0130117
142091:-2.99137e-08
142119:0.0147829
142148:-4.76837e-08
142176:-2.38419e-07
142269:-4.17232e-07
142294:-0.0326444
142323:0.0265749
142402:0.0136134
142530:0.0231582
142554:-3.18732e-05
142735:-0.00519982
142804:-1.23646e-08
142806:0.000406834
142823:0.0185546
142906:-1.09275e-07
143045:-1.87627e-08
143193:0.0147829
143236:-8.40621e-09
143249:-1.43129e-08
143270:-0.0571948
143355:0.0282016
143428:0.00332998
143470:-1.19209e-07
143475:-7.94729e-08
143511:0.0192835
143653:0.000544023
143758:0.00696234
143803:-2.70926e-08
143873:0.0233071
143893:-2.38419e-07
143964:-1.19209e-07
144003:4.068e-05
144011:0.0231397
144038:-0.0565522
144057:-2.38419e-07
144245:-0.0685837
144407:-2.89331e-08
144611:0.0140417
144622:-0.00048316
144665:-2.38419e-07
144672:2.00454e-05
144709:-2.99137e-08
144749:0.00504945
144766:-8.60956e-08
144929:-1.19209e-07
145068:0.00549883
145238:-1.79941e-08
145345:0.00182936
145384:0.0135681
145485:0.0813509
145491:0.128746
145560:-1.19209e-07
145578:0.00803235
145693:0.00832941
145782:0.00963984
145942:0.00803235
145951:-3.00167e-08
145969:0.0448174
146130:-2.68052e-08
146132:-2.38419e-07
146189:0.00377407
146272:-0.00048316
146279:-7.94729e-08
146683:0.00959377
146697:-0.00304429
146876:-0.000760639
147025:0.0231582
147151:0.00803235
147156:0.00602974
147172:0.0182206
147190:0.0146882
147225:-4.79695e-08
147263:-7.94729e-08
147412:0.0134288
147444:0.00264276
147479:0.0182206
147551:0.0496024
147598:-2.38419e-07
147623:-1.19209e-07
147629:-2.38419e-07
147654:-1.19209e-07
147800:-1.19209e-07
147803:0.000870818
147831:0.0298364
147878:0.210095
147894:0.0428995
147905:-2.38419e-07
147951:-2.38419e-07
147955:0.0229109
148081:-2.47586e-07
148086:0.000437492
148098:-1.26188e-07
148158:-8.04917e-08
148208:-1.89373e-08
148232:-1.19209e-07
148282:0.0530048
148369:-1.19209e-07
148378:0.0199521
148462:-2.38419e-07
148647:-8.51458e-08
148668:0.0212919
148757:0.0110341
148782:-2.68052e-08
148841:0.0407687
148854:0.202964
149172:0.000871703
149538:-2.38419e-07
149628:0.0918825
149631:-0.0208224
149709:-6.18957e-09
149724:-1.87627e-08
149803:-1.19209e-07
149859:-1.23646e-08
149873:0.0146882
149901:-6.98505e-08
149981:0.000944026
150042:-1.06359e-08
150237:-1.87627e-08
150243:2.98013e-08
150409:0.0125367
150590:0.163878
150599:-0.000127488
150693:-2.38419e-07
150714:0.0216892
150765:-5.30813e-08
150796:0.0521673
150815:-1.14437e-08
150997:0.00095521
151038:0.00789417
151256:0.00197469
151264:0.000437492
151277:-4.96693e-08
151288:-0.0326444
151322:-1.19209e-07
151328:-0.00816718
151332:0.106664
151336:0.0659365
151397:0.0130117
151491:0.0143707
151565:0.0019937
151640:0.07795
151649:-3.0566e-08
151700:0.21062
151796:0.0121611
152114:0.00341651
152191:0.000767268
152212:-0.0853292
152344:-2.38419e-07
152392:-3.97364e-08
152475:0.00310722
152507:0.0231582
152550:-2.38419e-07
152861:0.00362301
152877:-2.38419e-07
152941:0.00203568
152981:0.00141706
152995:-0.013325
153184:-0.109354
153380:0.0977953
153400:-6.87722e-08
153543:-4.96693e-08
153642:0.0141985
153702:0.0547807
153779:-3.92882e-08
153866:0.00362301
153943:0.00416028
153999:-6.55651e-07
154620:-3.97364e-08
154635:0.0055007
154691:0.00267704
154704:-0.00519982
154746:0.0224098
154887:0.0146882
154966:0.113652
155161:0.000693237
155221:-7.01836e-08
155447:-3.0566e-08
155536:0.0173229
155654:0.0324988
155758:-1.19209e-07
155789:-2.02609e-08
155955:-2.38419e-07
156171:0.0306633
156201:-5.26471e-08
156312:0.0259065
156404:-1.19209e-07
156435:0.0385625
156513:-4.76837e-08
156540:0.0423399
156604:0.063133
156689:-3.40598e-08
156799:0.0247783
156988:0.092255
157004:0.00766821
157040:0.00649674
157089:0.00128011
157207:0.00602399
157210:0.0464366
157270:0.0316892
157470:0.000275442
157629:-1.93289e-06
157845:0.0427147
158221:-2.38419e-07
158236:-5.0269e-08
158346:0.0438283
158359:-2.38419e-07
158424:-2.38419e-07
158434:0.0191871
158436:0.00416028
158444:0.0252968
158516:-5.96046e-08
158599:-0.000760639
158659:-1.19209e-07
158703:0.000613598
158707:-0.00939501
158748:0.105562
158813:0.000693237
158901:-1.19209e-07
158928:-0.0535961
158996:-1.17122e-08
159202:-3.97364e-08
159221:0.237183
159404:3.79967e-05
159516:0.00172714
159580:0.00575014
159585:0.021141
159660:0.0423722
159688:-2.38419e-07
159787:0.00487864
159907:0.110881
160092:0.0290935
160306:-2.38419e-07
160517:-0.0667655
161067:0.0307039
161209:0.0483118
161221:-1.06333e-08
161371:0.00602399
161379:0.026951
161392:-3.33786e-07
161418:0.00238243
161427:-1.06359e-08
161496:-2.38419e-07
161511:0.00099703
161736:0.0271135
161755:-5.96046e-08
161878:0.0113181
161917:0.00357033
161946:0.00276208
161960:-2.38419e-07
162078:0.000385578
162243:0.00561925
162288:0.0129633
162379:0.000406834
162413:-1.19209e-07
162677:-2.38419e-07
162708:-2.38419e-07
162821:-7.94729e-08
162988:-0.0219073
163072:-2.38419e-07
163125:0.02241
163177:-1.19209e-07
163331:-7.94729e-08
163625:-2.38419e-07
163683:-5.96046e-08
163706:0.092255
163722:-2.38419e-07
163794:-4.76837e-08
164014:-1.19209e-07
164062:0.00574135
164193:-4.17232e-07
164257:-2.76434e-08
164260:-2.38419e-07
164329:-0.0307052
164523:0.000157249
164665:0.0735189
164681:0.00405187
164811:-1.19209e-07
164864:-1.19209e-07
164926:-4.76837e-08
164938:0.000338351
165016:0.141436
165201:0.0348015
165265:-1.19209e-07
165297:-3.18732e-05
165335:-0.0592761
165399:-7.94729e-08
165402:0.219507
165466:-0.0231037
165492:-3.0566e-08
165594:0.00487869
165602:0.00561862
165832:0.000944026
165887:0.0117714
165891:0.00139528
165981:-0.0441571
165990:0.0107283
165992:0.00825266
166067:0.00172714
166081:0.0247201
166107:0.07795
166166:-0.0917555
166379:0.0155872
166439:-2.38419e-07
166627:0.0752773
166643:0.00284568
166781:0.0149507
166793:-1.35444e-08
166916:-0.0405852
167065:0.0351985
167183:0.000934623
167193:-2.38419e-07
167409:-2.38419e-07
167704:0.00199489
167814:0.0420891
167937:0.0166115
168012:-2.38419e-07
168120:0.00021866
168147:-2.38419e-07
168215:0.0977953
168252:0.016202
168360:0.120626
168501:-7.36001e-09
168578:-1.83399e-08
168659:-0.0208224
168693:-1.11752e-07
168794:0.0197939
168910:-2.79805e-08
168921:-6.30631e-08
169021:0.0161439
169046:0.0348015
169059:-2.16744e-08
169145:-2.35279e-08
169166:0.15577
169265:0.0277933
169279:0.0324988
169475:-7.94729e-08
169504:0.0197365
169536:-1.19209e-07
169574:0.10813
169580:-2.38419e-07
169610:-2.44096e-08
170062:0.0515411
170096:0.0297759
170182:-3.97364e-08
170257:-2.38419e-07
170287:0.0405259
170519:0.00332986
170543:0.00264271
170552:0.0446864
170779:0.0107311
170820:0.000275839
170839:-3.97364e-08
170900:-1.67678e-08
171134:-1.17122e-08
171211:0.178104
171296:-7.94729e-08
171378:-9.33254e-08
171499:-1.45713e-08
171687:0.00103717
171759:0.00512933
171875:0.0421147
171887:-0.0349824
171928:-2.38419e-07
172040:0.100415
172122:0.000900435
172155:-7.94729e-08
172356:0.0219937
172415:0.0130446
172485:0.00273547
172558:0.00056804
172573:0.014098
172714:-1.02765e-07
172754:0.0424852
172786:-4.76837e-08
172811:-7.94729e-08
172831:-1.26184e-08
172911:-7.05219e-08
173113:2.00454e-05
173210:0.00561862
173225:-3.0935e-08
173258:-0.0137951
173335:0.0427147
173512:0.00904232
173713:0.0107612
173918:-0.0109748
174068:0.0351464
174123:0.00157464
174170:0.0928669
174171:0.0175509
174178:-2.70926e-08
174210:-2.51899e-08
174222:0.02117
174305:0.00818176
174355:0.00854007
174365:0.00157464
174444:0.10417
174501:0.00196431
174529:0.064997
174546:0.0136134
174553:-1.02815e-08
174668:0.00696234
174783:0.00437137
174827:-7.94729e-08
174919:-7.94729e-08
175016:-2.16744e-08
175036:0.110677
175114:0.0217653
175151:0.00104237
175391:0.00975662
175431:0.0409033
175591:0.00403702
175592:-2.38419e-07
175609:0.100415
175625:0.0173229
175674:-0.00048316
175727:-1.23646e-08
175798:-2.70926e-08
175865:0.000437492
176047:-2.39774e-08
176064:-7.36001e-09
176103:0.0134288
176130:0.00483519
176446:-0.00048316
176452:0.00487869
176468:0.016202
176521:-4.96693e-08
176802:0.000934623
176842:0.000338351
176851:0.0950693
176919:-0.020234
176993:-2.44708e-08
176998:-8.52433e-09
177010:0.0221717
177158:-0.036694
177183:-0.0653029
177223:-1.19209e-07
177338:-3.18732e-05
177506:0.000806661
177511:-2.38419e-07
177649:-1.19209e-07
177705:-0.00160187
177735:0.0150947
177757:0.0491375
177786:-3.33786e-07
177836:-1.19209e-07
177981:0.0950694
178003:0.00416024
178057:-2.38419e-07
178081:0.000481413
178106:0.0275699
178107:-2.68052e-08
178148:0.0414418
178496:-1.19209e-07
178540:0.00959379
178610:0.090153
178718:-2.38419e-07
178814:0.000254063
178857:0.00242762
178949:-4.76837e-08
179113:0.0315434
179138:-1.54972e-07
179157:-1.65885e-08
179214:-3.0566e-08
179355:-1.19209e-07
179356:0.00391013
179411:-1.66726e-07
179461:0.321977
179655:-2.29991e-08
179751:0.000589552
179918:0.0216913
180048:0.0151034
180059:-1.45739e-08
180135:0.145388
180206:0.0136134
180356:0.0165106
180377:-0.0125833
180457:-0.0109748
180629:-1.89373e-08
180707:-7.85106e-08
180839:-0.000760639
180898:0.0155894
180938:-9.3741e-08
181116:0.0379709
181142:0.143153
181186:-0.00383426
181341:-2.16744e-08
181577:0.157046
181652:-1.87627e-08
181839:0.000697761
181892:-7.94729e-08
181896:-4.98315e-08
181901:-7.25892e-08
181966:-2.38419e-07
182156:-2.38419e-07
182179:0.0130446
182353:0.0117714
182432:-5.96046e-08
182550:0.0119705
182681:0.0306631
182758:-0.0109748
182784:0.00505208
182916:-2.38419e-07
182983:-4.66627e-08
183025:-0.0997858
183039:-4.23568e-08
183146:-5.96046e-08
183178:0.0101504
183190:0.211161
183266:-2.38419e-07
183295:0.049622
183313:0.105562
183387:0.0794458
183596:0.0460555
183694:0.0672632
183748:0.00101565
183781:-2.38419e-07
183792:0.00487869
183843:0.10813
183951:-1.19209e-07
184027:-0.0489876
184058:-1.19209e-07
184059:0.016202
184083:-0.00383426
184099:-0.0333335
184126:-2.16744e-08
184152:0.00991927
184155:0.001169
184282:-7.36001e-09
184301:0.0282016
184305:0.0480401
184365:-1.19209e-07
184644:0.000544079
184730:0.0166106
184822:0.0893712
184859:-0.0036743
184955:-2.20537e-06
185001:0.24996
185129:0.024257
185161:-1.19209e-07
185189:0.0100393
185194:0.0900528
185258:-0.0846291
185328:-7.94729e-08
185439:0.00623445
185506:-2.74565e-08
185672:0.0140695
185742:-2.38419e-07
185799:0.0216892
185827:-2.70926e-08
185856:0.0140856
185893:0.0405259
185951:0.0208796
185966:0.131862
186025:-2.38419e-07
186062:0.0113181
186151:0.00313084
186195:-3.97364e-08
186212:0.0128988
186357:0.0265512
186529:-2.99137e-08
186547:0.019102
186568:0.00171611
186617:-0.0405852
186667:-2.28225e-08
186668:0.0102447
186777:-4.17232e-07
186876:-0.0350231
186919:0.0462222
187148:-0.0293073
187223:0.0428353
187234:-3.28978e-08
187308:-7.94729e-08
187317:-0.00874452
187502:0.0064432
187620:2.83491e-05
187865:0.00904232
187899:-2.38419e-07
188031:0.157046
188069:-1.84843e-08
188254:0.00766821
188325:0.0628545
188353:-2.38419e-07
188521:-2.28776e-08
188583:-2.38419e-07
188839:-0.00816718
188932:0.0217249
188957:-2.38419e-07
189010:-2.68052e-08
189042:-2.38419e-07
189224:-7.94729e-08
189293:0.063133
189297:-5.96046e-08
189335:0.0246071
189431:-6.60526e-08
189462:-2.67291e-08
189466:0.00341651
189520:-1.19209e-07
189625:-1.19209e-07
189638:0.0460555
189694:0.151322
189699:-0.0350231
189785:0.128977
189946:-1.19209e-07
190025:-1.84843e-08
190067:-7.94729e-08
190128:-2.38419e-07
190148:0.0185546
190264:-5.47863e-09
190312:0.00904231
190381:0.0141985
190394:-1.08271e-07
190419:-1.19209e-07
190453:0.123443
190630:-4.23302e-08
190772:0.00402
190793:0.000406834
190823:0.00341643
190938:-2.68052e-08
191114:-0.136616
191135:-2.70926e-08
191254:0.0130446
191456:-4.23568e-08
191464:-2.38419e-07
191468:-5.47863e-09
191560:0.00072132
191570:-1.35444e-08
191734:0.00196431
191738:-0.0273791
191812:-0.0340308
191835:0.0316892
191863:0.00552606
191877:-2.38419e-07
191932:0.0173229
191951:-9.15919e-08
191971:-1.19209e-07
192052:0.142427
192084:-1.93715e-07
192107:-0.00048316
192270:-2.38419e-07
192350:-2.38419e-07
192361:-0.0431868
192404:0.00239102
192533:-0.0233695
192581:-7.94729e-08
192764:0.0530048
192784:0.0216913
193194:0.0146882
193297:0.134879
193448:0.0307225
193449:-1.19209e-07
193617:0.0392394
193640:-1.87627e-08
193651:-6.31394e-08
193782:0.00549883
193865:0.00128002
193978:0.0731631
194133:-0.0685837
194154:0.0446864
194162:-3.58144e-08
194175:-7.36001e-09
194249:-5.96046e-08
194262:0.0405259
194316:0.031246
194348:0.00215286
194382:0.0166115
194449:-0.0132867
194503:-1.19209e-07
194516:-2.38419e-07
194519:0.0495682
194523:-1.19209e-07
194553:0.0315434
194603:-0.0137951
194604:-9.00045e-08
194628:0.0208796
194639:-1.19209e-07
194644:0.00144336
194757:0.0167669
194843:0.000454605
194906:-2.70926e-08
194959:0.0233717
194965:0.0299527
195042:-1.79941e-08
195061:-1.19209e-07
195124:0.0147829
195145:-4.89275e-08
195150:0.0121611
195198:0.0573169
195229:0.000613598
195346:-8.71161e-08
195357:0.00487869
195393:-2.38419e-07
195455:-0.000683187
195567:-7.94729e-08
195619:0.0334143
195713:-2.20537e-06
195781:-2.38419e-07
195947:-2.38419e-07
196042:0.0216913
196175:0.0143545
196221:0.0121611
196404:-0.000664234
196525:0.0141853
196635:0.235015
196822:0.128014
196826:-0.0179104
196844:-2.38419e-07
196854:0.0530048
196920:0.0368801
196930:-1.19209e-07
196962:-7.94729e-08
197016:0.0148463
197064:-2.38419e-07
197076:-2.38419e-07
197108:0.0964337
197357:0.0014995
197393:0.000162658
197454:0.00963984
197539:-2.99137e-08
197885:0.00128976
197957:-1.19209e-07
198140:0.22658
198209:-2.38419e-07
198243:-1.19209e-07
198297:-4.76837e-08
198356:-4.99846e-08
198375:-2.17557e-06
198407:-0.0137951
198506:0.0672632
198565:0.0324653
198780:-2.43383e-08
198880:-2.38419e-07
199114:0.0124443
199254:0.00396804
199274:0.0110341
199335:0.00341651
199382:0.00602974
199390:0.0147829
199406:-0.000127488
199511:-1.06359e-08
199519:-1.19209e-07
199528:-6.87722e-08
199557:-5.96046e-08
199620:-6.31394e-08
199640:0.0199521
199681:-1.19209e-07
199742:0.276268
199856:-5.31262e-09
199986:-1.09279e-07
200020:-1.69324e-08
200042:-0.0156174
200112:0.000254101
200114:-7.94729e-08
200190:-2.38419e-07
200253:0.0033503
200387:0.000157249
200564:-2.01159e-08
200609:-3.18732e-05
200646:0.211692
200655:0.0757333
200698:0.000338351
200846:0.0216012
200850:-4.76837e-08
200966:-2.38419e-07
200980:-2.38419e-07
201090:0.00696234
201473:0.00341651
201478:-1.19209e-07
201584:-2.70926e-08
201716:0.0125401
201774:-1.43129e-08
201807:-2.38419e-07
201863:0.00192489
201952:0.0451652
201974:-3.88718e-08
202065:-1.19209e-07
202135:-0.00816718
202261:-2.38419e-07
202415:0.00128007
202417:0.000934623
202442:0.0243342
202563:0.00405187
202607:-0.00160187
202627:0.0197365
202760:-9.67587e-09
202860:0.000358326
202910:-7.26026e-08
202919:-2.38419e-07
203161:-5.96046e-08
203334:-1.19209e-07
203570:-1.19209e-07
203589:-6.55651e-07
203627:0.0165106
203716:0.0235352
203829:-7.94729e-08
204010:0.0302211
204150:-0.00268121
204203:0.00267178
204212:-0.0644617
204369:0.000613598
204393:0.0632942
204587:-0.0460082
204701:-1.54972e-07
204819:0.0192387
205001:-1.06333e-08
205080:0.00103717
205179:0.000254101
205239:-4.76837e-08
205406:-2.38419e-07
205418:-5.96046e-08
205419:-3.00167e-08
205465:-3.42054e-08
205586:0.000144698
205607:0.0208796
205637:0.0146882
205727:-5.96046e-08
205840:-1.19209e-07
205927:0.00168175
206049:-8.60956e-08
206161:-1.19209e-07
206171:-7.94729e-08
206226:-2.38419e-07
206327:-3.18732e-05
206389:0.00303786
206446:0.00467331
206496:-0.0137951
206504:0.0098607
206541:-4.77507e-05
206621:-2.38419e-07
206677:-1.19209e-07
206757:-7.94729e-08
206879:-9.50888e-08
206986:-0.051673
207035:-0.00048316
207036:0.00579273
207109:0.00602399
207183:0.00172714
207241:-1.19209e-07
207280:0.143405
207362:-3.88718e-08
207409:0.0446241
207427:-0.00501346
207448:-0.0137294
207596:0.0348015
207721:-1.19209e-07
207939:0.00450872
208001:-8.76667e-08
208052:0.15577
208096:0.00320952
208143:0.0413916
208214:0.0182206
208311:-0.00268121
208342:-8.52433e-09
208368:0.00174091
208375:-1.19209e-07
208403:0.0741166
208448:-5.96046e-08
208530:-0.0132867
208657:-7.94729e-08
208854:0.000697761
208866:-2.38419e-07
208920:-3.0935e-08
208955:0.00405187
208983:0.0010873
209431:0.00168229
209543:0.0263985
209569:0.0643205
209596:0.0331667
209677:0.0378946
209714:0.0208796
209716:-6.55651e-07
209768:-4.23302e-08
209826:-0.0233695
209883:-2.38419e-07
209916:-2.6491e-08
209936:0.063133
210078:-1.69324e-08
210148:-6.18957e-09
210252:-0.00383426
210254:0.0130117
210284:-7.00203e-08
210407:-4.76837e-08
210488:0.02117
210579:0.00787227
210684:-2.38419e-07
210879:-1.19209e-07
210922:0.0121906
210953:0.000437492
210968:-0.0590345
211179:0.00155179
211223:-0.00048316
211225:-2.52966e-08
211250:0.0216913
211323:-1.43129e-08
211401:-1.28857e-07
211478:0.0378946
211540:0.0333672
211614:0.000454605
211653:0.0468116
211802:0.0185546
212104:-2.38419e-07
212205:-0.0124073
212237:0.00263411
212244:0.0247108
212372:-1.19209e-07
212387:-7.94729e-08
212408:0.128977
212456:-0.00579118
212665:0.00128011
213061:0.092255
213135:0.00791959
213146:0.221532
213200:0.029845
213303:-1.19209e-07
213349:-5.47863e-09
213554:-4.99846e-08
213658:-2.74565e-08
213669:0.00437137
213682:-2.38419e-07
213796:0.00238243
213934:0.0258228
213963:0.00679577
214000:0.00264276
214407:0.00214872
214440:-3.0315e-08
214512:-0.0685837
214634:0.0133071
214729:0.00999701
214864:-1.93289e-06
214960:-1.19209e-07
215257:0.001662
215311:0.018189
215457:0.00306093
215497:0.0343876
215603:0.143405
215645:0.00233856
215679:-2.38419e-07
215709:-3.0935e-08
215908:0.0216892
215909:0.000157249
215938:0.000434077
216162:-9.67587e-09
216166:-0.0832218
216175:-0.00280093
216502:-3.0935e-08
216566:0.00168264
216572:0.00450872
216611:0.162962
216626:-4.08889e-08
216684:0.00623445
216758:-2.38419e-07
216783:-0.00383426
216821:-5.96046e-08
216853:-5.96046e-08
216882:-7.94729e-08
216912:0.000911289
216974:0.00766821
217024:0.000239901
217027:0.00736827
217064:0.0248836
217084:-2.38419e-07
217188:-3.24263e-08
217269:-2.38419e-07
217287:-1.19209e-07
217305:-2.01159e-08
217318:-4.90616e-08
217388:-5.82905e-08
217453:-3.28978e-08
217534:-1.67678e-08
217624:0.0878314
217661:-0.0498763
217706:0.0423399
217715:-1.11752e-07
217933:0.00709513
218091:-1.23019e-07
218145:-1.19209e-07
218305:-7.9135e-08
218330:-2.44096e-08
218454:0.100415
218585:0.014098
218642:-1.83399e-08
218781:0.012478
218849:0.00579273
218882:0.00131593
218893:-2.38419e-07
218903:0.00196431
218920:0.00533329
218995:-1.26184e-08
219087:3.79967e-05
219296:-2.38419e-07
219424:0.0321162
219466:0.00192429
219475:0.00128976
219592:0.000589552
219864:-1.45713e-08
219885:-0.0132893
219905:0.0167669
219943:0.00157464
219954:-7.94729e-08
220038:0.0416287
220049:0.0333672
220060:-0.0156174
220090:-1.93289e-06
220127:-3.00167e-08
220371:-2.16744e-08
220467:-1.19209e-07
220491:-0.0878728
220567:0.00696234
220581:-2.38419e-07
220679:0.00579273
220690:-2.38419e-07
220728:-2.38419e-07
220856:0.0677218
221158:0.000137647
221166:0.0631265
221666:0.0587004
221972:-2.38419e-07
222180:-2.38419e-07
222305:-7.94729e-08
222306:-4.76837e-08
222365:0.000248096
222435:-1.19209e-07
222651:0.0181371
222655:-0.0312622
222714:0.00432328
222732:-5.96046e-08
222737:0.0121611
222805:2.00454e-05
222871:0.0185546
222977:-0.0070261
223159:0.0140856
223187:-6.78718e-08
223331:0.000997151
223468:-2.72701e-08
223487:-1.83399e-08
223496:0.0423399
223707:-1.23646e-08
223779:-1.19209e-07
223797:-1.19209e-07
224039:0.110677
224174:0.0019783
224212:0.00377407
224228:0.0146882
224246:-6.78718e-08
224253:0.00623445
224305:-1.31198e-07
224351:0.0296059
224431:0.0121611
224587:0.0306915
224659:-0.0209534
224760:0.018189
224923:0.00203081
224950:-1.19209e-07
224997:0.00975657
225051:-5.96046e-08
225258:-1.19209e-07
225277:0.137842
225281:0.0134288
225282:-1.19209e-07
225436:0.0950694
225491:0.0375647
225519:0.0932738
225732:-0.0323412
225772:-1.93715e-07
225817:-2.38419e-07
225839:0.028927
225882:-2.38419e-07
225936:-5.10897e-08
226124:0.00341651
226135:0.000631104
226197:-0.0798459
226215:-7.94729e-08
226289:0.151322
226345:-0.00501346
226373:0.0946843
226375:0.000437492
226429:-2.76434e-08
226461:-2.98023e-08
226538:-9.67587e-09
226544:-3.42054e-08
226667:0.0101504
226685:0.0130446
226761:-7.94729e-08
226768:0.00132813
226853:0.0155894
226892:0.000652498
226912:0.000385578
226932:0.00591067
226994:-2.70926e-08
227149:0.0105668
227230:-1.13361e-07
227327:-3.97364e-08
227363:-7.94729e-08
227367:-0.0120951
227613:0.0623042
227668:-2.38419e-07
227717:-0.0055315
227755:-1.06e-07
227846:-0.00549561
227880:0.00101705
227915:-3.0935e-08
227965:-5.96046e-08
228003:0.00203623
228212:0.024153
228226:-3.85404e-08
228338:-7.94729e-08
228365:0.00733991
228404:0.247025
228420:0.0135681
228481:-0.189419
228551:0.0105668
228666:-0.025795
228681:-1.06359e-08
228728:0.00197794
228826:0.000871002
228885:-1.84843e-08
228931:-4.98315e-08
229004:-2.38419e-07
229071:0.000298236
229205:0.00904232
229211:0.000631104
229257:-0.0097908
229299:-0.0568163
229358:-2.44708e-08
229448:-2.38419e-07
229469:0.0136605
229564:-0.00048316
229727:0.251415
229756:0.000589552
229769:0.0015579
229780:0.00709513
229846:-6.37457e-05
230047:-8.52433e-09
230116:-1.19209e-07
230129:0.000677806
230219:0.00264276
230228:0.000911289
230387:-0.0351957
230528:-0.0307052
230647:-2.50407e-07
231120:0.0247201
231223:-2.98023e-08
231229:0.00437253
231276:0.113652
231405:0.0172284
231454:-4.76837e-08
231494:-3.0075e-08
231547:-2.38419e-07
231687:-0.00552016
231697:-2.02238e-08
231763:0.00233728
231771:0.00264276
231812:0.0386345
231823:-2.38419e-07
231895:-2.38419e-07
231903:-1.19209e-07
231964:-5.96046e-08
231996:0.0331985
232086:-2.98023e-08
232218:0.053977
232264:-3.27826e-07
232298:-1.06359e-08
232345:0.00533332
232402:0.123443
232437:-0.136616
232567:-1.48134e-07
232613:-1.5313e-07
232630:0.00416028
232823:-1.19209e-07
232959:0.0130446
232971:-0.000683187
233056:0.0297759
233088:0.0198204
233164:0.00487912
233283:-2.38419e-07
233393:0.0951127
233424:-7.94729e-08
233528:-1.14437e-08
233561:-2.38419e-07
233591:-0.00519982
233977:0.0110725
234207:-1.83399e-08
234394:0.0506036
234473:0.00178476
234583:0.0306631
234722:0.00878454
234742:-3.0315e-08
235034:0.0246814
235188:0.0378946
235198:-2.38419e-07
235239:-2.38419e-07
235352:0.0192333
235371:-2.38419e-07
235494:-7.94729e-08
235577:0.0197365
235621:-1.1713e-08
235665:0.011034
235696:0.00149623
235770:-1.19209e-07
235806:-2.38419e-07
235882:-1.14437e-08
235921:-0.00436518
236026:-1.19209e-07
236074:-1.19209e-07
236269:-1.54972e-07
236301:-1.02815e-08
236389:0.0331985
236396:0.165824
236405:-2.38419e-07
236456:-1.45713e-08
236567:0.00196431
236578:0.0463932
236747:-2.38419e-07
236765:0.00341651
236967:-1.19209e-07
237300:0.0166115
237333:0.0506036
237341:0.23617
237371:-4.96693e-08
237410:0.0145634
237531:0.128014
237539:-1.19209e-07
237609:0.00107549
237644:0.0315434
237678:0.00131593
237690:0.0171867
237743:-9.78818e-09
237883:-2.38419e-07
237977:-2.38419e-07
238252:0.0172284
238565:0.00123882
238594:0.164727
238654:-1.19209e-07
238706:-3.85625e-08
238745:-5.8256e-08
238966:0.00838591
239024:0.000437492
239063:0.0495682
239137:0.000144698
239291:0.00141706
239330:0.19497
239367:-2.38419e-07
239486:-1.08271e-07
239667:-7.94729e-08
239682:-2.38419e-07
239699:-1.19209e-07
239795:-9.0951e-08
239875:-9.67587e-09
239917:-0.066553
240049:0.000454605
240050:0.00197341
240230:-5.96046e-08
240343:-6.65162e-08
240348:-1.14437e-08
240407:0.0125932
240420:0.0119678
240493:-6.87722e-08
240522:-1.17122e-08
240526:-1.83399e-08
240528:0.00056804
240587:0.00835834
240702:0.0082092
241188:0.0208796
241330:0.0177281
241686:-3.19305e-08
241692:-1.69324e-08
241859:2.00454e-05
241888:-2.35279e-08
241939:0.02117
241957:0.014098
242090:0.00789417
242370:-7.26026e-08
242449:-3.97364e-08
242475:0.0217653
242575:-2.44708e-08
242577:-0.0307052
242587:-5.47863e-09
242683:8.97874e-05
242701:-0.00436518
243066:8.97874e-05
243117:-6.67979e-08
243253:0.191465
243286:0.00789417
243288:0.0115386
243473:0.0178103
243524:0.00502756
243552:0.0306915
243553:0.0600485
243576:0.0107312
243699:0.0301434
243733:-0.00579118
243860:-4.41097e-08
243946:0.0122155
244153:0.018189
244154:-1.87627e-08
244206:0.00854007
244531:-5.96046e-08
244560:-1.83399e-08
244762:-1.19209e-07
244785:0.0307994
244795:0.122921
245063:0.00131846
245095:-3.97364e-08
245467:-2.6491e-08
245665:-0.0571948
245679:-2.38419e-07
245843:0.0378454
245921:-2.38419e-07
246142:0.00480229
246598:-1.08271e-07
246665:-1.06359e-08
246858:0.00341651
246947:-1.19209e-07
246950:-7.94729e-08
246960:0.0172628
247010:-7.94729e-08
247018:-3.97364e-08
247024:-1.19209e-07
247133:-0.0120951
247177:-2.52335e-07
247346:-2.38419e-07
247398:-1.88735e-08
247537:0.00405187
247570:0.296806
247619:0.0360962
247680:0.0247201
247743:0.000911289
247924:-1.19209e-07
248108:0.00341651
248144:-0.183989
248163:0.00320087
248178:0.00854007
248186:0.00197853
248282:-7.36001e-09
248318:-2.38419e-07
248440:-2.38419e-07
248503:0.0396132
248917:0.143153
248947:0.0200325
248966:0.00550412
249005:0.0288605
249031:0.00473659
249084:-2.38419e-07
249255:0.018189
249333:-8.47488e-08
249501:-0.0109748
249513:-2.70926e-08
249868:-1.14437e-08
250032:0.0575158
250094:-4.76837e-08
250421:-2.38419e-07
250495:-3.0566e-08
250519:-2.38419e-07
250526:-5.96046e-08
250581:0.0331985
250689:0.0222576
250729:-0.105686
250774:-2.38419e-07
250778:-2.72701e-08
250855:-2.98023e-08
250969:0.000911289
251008:0.00693904
251055:-0.00048316
251185:-0.0685837
251311:-0.00434325
251323:0.0813509
251337:0.000232004
251392:-0.0179104
251424:-2.17519e-08
251624:-7.94729e-08
251694:0.00174014
251737:-8.44546e-08
251997:0.0132394
252230:0.07795
252311:0.0121906
252370:0.00263411
252673:0.00693904
252679:-1.26184e-08
252707:-1.83399e-08
252763:0.019102
252925:8.13297e-05
253082:0.0442709
253148:-0.0399839
253228:0.0423399
253582:0.00595152
253675:-0.0115492
253729:-2.38419e-07
253773:0.0247341
253828:-0.00519982
253850:-1.57173e-07
253873:-2.38419e-07
253913:-1.19209e-07
253945:0.0135681
253973:-3.40598e-08
254013:0.0950694
254142:-1.14437e-08
254182:0.0210852
254236:-2.38419e-07
254265:0.193418
254325:0.000944026
254507:0.00332998
254686:0.0422345
254802:0.0110575
254833:0.0956455
254953:0.00363565
255012:-2.38419e-07
255115:-7.94729e-08
255116:-1.43129e-08
255237:-0.0371931
255251:-2.38419e-08
255458:0.00332993
255553:-4.76837e-08
255586:-0.0441232
255792:0.00575014
255859:0.00215286
255972:-3.0566e-08
256367:-4.96693e-08
256389:0.0229109
256577:0.117673
256585:-7.94729e-08
256756:0.123443
256880:-0.0219618
257075:-1.54972e-07
257249:-2.70926e-08
257306:0.00310744
257385:-5.96046e-08
257386:0.00550412
257558:0.0130446
257730:-0.114911
257745:0.000275442
257751:-0.0151107
257842:0.00141706
257869:0.00056804
258285:0.0191871
258363:0.0459595
258566:0.00975662
258574:0.0220103
258616:0.00450872
258795:-7.18943e-08
258933:0.0977953
258980:-0.00550324
259253:0.118147
259477:0.0232391
259606:0.0305652
259715:-3.33786e-07
259989:0.0115553
260067:-2.38419e-07
260080:0.127366
260158:0.0421704
260237:-9.81509e-08
260285:0.157046
260304:0.00649674
260335:-0.00383426
260454:0.00854007
260581:-0.138141
260582:0.0197365
260775:0.00138024
260869:-4.23302e-08
260985:0.0276493
261011:0.0274833
261014:-3.97364e-08
261262:0.0409833
261315:0.018189
261346:0.00192548
261613:-1.19209e-07
261679:-3.24263e-08
261750:-8.70228e-07
261858:0.00202307
261919:0.156702
